digraph Tree {
node [shape=box, style="filled", color="black", fontname="helvetica"] ;
graph [ranksep=equally, splines=polyline] ;
edge [fontname="helvetica"] ;
0 [label="idade <= -0.453\nentropy = 0.616\nsamples = 1300\nvalue = [1102, 198]\nclass = não pagou", fillcolor="#ea985d"] ;
1 [label="valor_emprestimo <= -0.381\nentropy = 0.974\nsamples = 488\nvalue = [290, 198]\nclass = não pagou", fillcolor="#f7d7c0"] ;
0 -> 1 [labeldistance=2.5, labelangle=45, headlabel="True"] ;
2 [label="renda <= -1.696\nentropy = 0.168\nsamples = 201\nvalue = [196, 5]\nclass = não pagou", fillcolor="#e6843e"] ;
1 -> 2 ;
3 [label="valor_emprestimo <= -0.658\nentropy = 0.991\nsamples = 9\nvalue = [4, 5]\nclass = pagou", fillcolor="#d7ebfa"] ;
2 -> 3 ;
4 [label="entropy = 0.0\nsamples = 4\nvalue = [4, 0]\nclass = não pagou", fillcolor="#e58139"] ;
3 -> 4 ;
5 [label="entropy = 0.0\nsamples = 5\nvalue = [0, 5]\nclass = pagou", fillcolor="#399de5"] ;
3 -> 5 ;
6 [label="entropy = 0.0\nsamples = 192\nvalue = [192, 0]\nclass = não pagou", fillcolor="#e58139"] ;
2 -> 6 ;
7 [label="valor_emprestimo <= 0.824\nentropy = 0.912\nsamples = 287\nvalue = [94, 193]\nclass = pagou", fillcolor="#99cdf2"] ;
1 -> 7 ;
8 [label="renda <= 0.109\nentropy = 1.0\nsamples = 174\nvalue = [89, 85]\nclass = não pagou", fillcolor="#fef9f6"] ;
7 -> 8 ;
9 [label="valor_emprestimo <= 0.3\nentropy = 0.787\nsamples = 102\nvalue = [24, 78]\nclass = pagou", fillcolor="#76bbed"] ;
8 -> 9 ;
10 [label="renda <= -0.954\nentropy = 0.971\nsamples = 60\nvalue = [24, 36]\nclass = pagou", fillcolor="#bddef6"] ;
9 -> 10 ;
11 [label="valor_emprestimo <= -0.364\nentropy = 0.206\nsamples = 31\nvalue = [1, 30]\nclass = pagou", fillcolor="#40a0e6"] ;
10 -> 11 ;
12 [label="valor_emprestimo <= -0.368\nentropy = 0.811\nsamples = 4\nvalue = [1, 3]\nclass = pagou", fillcolor="#7bbeee"] ;
11 -> 12 ;
13 [label="entropy = 0.0\nsamples = 3\nvalue = [0, 3]\nclass = pagou", fillcolor="#399de5"] ;
12 -> 13 ;
14 [label="entropy = 0.0\nsamples = 1\nvalue = [1, 0]\nclass = não pagou", fillcolor="#e58139"] ;
12 -> 14 ;
15 [label="entropy = 0.0\nsamples = 27\nvalue = [0, 27]\nclass = pagou", fillcolor="#399de5"] ;
11 -> 15 ;
16 [label="valor_emprestimo <= 0.155\nentropy = 0.736\nsamples = 29\nvalue = [23, 6]\nclass = não pagou", fillcolor="#eca26d"] ;
10 -> 16 ;
17 [label="idade <= -1.65\nentropy = 0.426\nsamples = 23\nvalue = [21, 2]\nclass = não pagou", fillcolor="#e78d4c"] ;
16 -> 17 ;
18 [label="entropy = 0.0\nsamples = 1\nvalue = [0, 1]\nclass = pagou", fillcolor="#399de5"] ;
17 -> 18 ;
19 [label="idade <= -0.553\nentropy = 0.267\nsamples = 22\nvalue = [21, 1]\nclass = não pagou", fillcolor="#e68742"] ;
17 -> 19 ;
20 [label="entropy = 0.0\nsamples = 19\nvalue = [19, 0]\nclass = não pagou", fillcolor="#e58139"] ;
19 -> 20 ;
21 [label="idade <= -0.523\nentropy = 0.918\nsamples = 3\nvalue = [2, 1]\nclass = não pagou", fillcolor="#f2c09c"] ;
19 -> 21 ;
22 [label="entropy = 0.0\nsamples = 1\nvalue = [0, 1]\nclass = pagou", fillcolor="#399de5"] ;
21 -> 22 ;
23 [label="entropy = 0.0\nsamples = 2\nvalue = [2, 0]\nclass = não pagou", fillcolor="#e58139"] ;
21 -> 23 ;
24 [label="renda <= -0.284\nentropy = 0.918\nsamples = 6\nvalue = [2, 4]\nclass = pagou", fillcolor="#9ccef2"] ;
16 -> 24 ;
25 [label="entropy = 0.0\nsamples = 4\nvalue = [0, 4]\nclass = pagou", fillcolor="#399de5"] ;
24 -> 25 ;
26 [label="entropy = 0.0\nsamples = 2\nvalue = [2, 0]\nclass = não pagou", fillcolor="#e58139"] ;
24 -> 26 ;
27 [label="entropy = 0.0\nsamples = 42\nvalue = [0, 42]\nclass = pagou", fillcolor="#399de5"] ;
9 -> 27 ;
28 [label="valor_emprestimo <= 0.461\nentropy = 0.46\nsamples = 72\nvalue = [65, 7]\nclass = não pagou", fillcolor="#e88f4e"] ;
8 -> 28 ;
29 [label="entropy = 0.0\nsamples = 45\nvalue = [45, 0]\nclass = não pagou", fillcolor="#e58139"] ;
28 -> 29 ;
30 [label="renda <= 0.529\nentropy = 0.826\nsamples = 27\nvalue = [20, 7]\nclass = não pagou", fillcolor="#eead7e"] ;
28 -> 30 ;
31 [label="entropy = 0.0\nsamples = 6\nvalue = [0, 6]\nclass = pagou", fillcolor="#399de5"] ;
30 -> 31 ;
32 [label="valor_emprestimo <= 0.795\nentropy = 0.276\nsamples = 21\nvalue = [20, 1]\nclass = não pagou", fillcolor="#e68743"] ;
30 -> 32 ;
33 [label="entropy = 0.0\nsamples = 18\nvalue = [18, 0]\nclass = não pagou", fillcolor="#e58139"] ;
32 -> 33 ;
34 [label="valor_emprestimo <= 0.805\nentropy = 0.918\nsamples = 3\nvalue = [2, 1]\nclass = não pagou", fillcolor="#f2c09c"] ;
32 -> 34 ;
35 [label="entropy = 0.0\nsamples = 1\nvalue = [0, 1]\nclass = pagou", fillcolor="#399de5"] ;
34 -> 35 ;
36 [label="entropy = 0.0\nsamples = 2\nvalue = [2, 0]\nclass = não pagou", fillcolor="#e58139"] ;
34 -> 36 ;
37 [label="valor_emprestimo <= 1.171\nentropy = 0.261\nsamples = 113\nvalue = [5, 108]\nclass = pagou", fillcolor="#42a2e6"] ;
7 -> 37 ;
38 [label="renda <= 0.987\nentropy = 0.571\nsamples = 37\nvalue = [5, 32]\nclass = pagou", fillcolor="#58ace9"] ;
37 -> 38 ;
39 [label="entropy = 0.0\nsamples = 31\nvalue = [0, 31]\nclass = pagou", fillcolor="#399de5"] ;
38 -> 39 ;
40 [label="valor_emprestimo <= 1.1\nentropy = 0.65\nsamples = 6\nvalue = [5, 1]\nclass = não pagou", fillcolor="#ea9a61"] ;
38 -> 40 ;
41 [label="entropy = 0.0\nsamples = 4\nvalue = [4, 0]\nclass = não pagou", fillcolor="#e58139"] ;
40 -> 41 ;
42 [label="idade <= -1.447\nentropy = 1.0\nsamples = 2\nvalue = [1, 1]\nclass = não pagou", fillcolor="#ffffff"] ;
40 -> 42 ;
43 [label="entropy = 0.0\nsamples = 1\nvalue = [1, 0]\nclass = não pagou", fillcolor="#e58139"] ;
42 -> 43 ;
44 [label="entropy = 0.0\nsamples = 1\nvalue = [0, 1]\nclass = pagou", fillcolor="#399de5"] ;
42 -> 44 ;
45 [label="entropy = 0.0\nsamples = 76\nvalue = [0, 76]\nclass = pagou", fillcolor="#399de5"] ;
37 -> 45 ;
46 [label="entropy = 0.0\nsamples = 812\nvalue = [812, 0]\nclass = não pagou", fillcolor="#e58139"] ;
0 -> 46 [labeldistance=2.5, labelangle=-45, headlabel="False"] ;
{rank=same ; 0} ;
{rank=same ; 1} ;
{rank=same ; 2; 7} ;
{rank=same ; 3; 8; 37} ;
{rank=same ; 9; 28; 38} ;
{rank=same ; 10; 30; 40} ;
{rank=same ; 11; 16; 32; 42} ;
{rank=same ; 12; 17; 24; 34} ;
{rank=same ; 19} ;
{rank=same ; 21} ;
{rank=same ; 4; 5; 6; 13; 14; 15; 18; 20; 22; 23; 25; 26; 27; 29; 31; 33; 35; 36; 39; 41; 43; 44; 45; 46} ;
}